digraph Tree {
node [shape=box, style="filled, rounded", color="black", fontname="helvetica"] ;
edge [fontname="helvetica"] ;
0 [label="init_eval_grad_time <= 0.007\nsquared_error = 2.554\nsamples = 16126\nvalue = 0.661", fillcolor="#f1ba93"] ;
1 [label="init_eval_obj_time <= 0.0\nsquared_error = 1.576\nsamples = 13615\nvalue = 0.294", fillcolor="#f2be9a"] ;
0 -> 1 [labeldistance=2.5, labelangle=45, headlabel="True"] ;
2 [label="expr_depth <= 8.5\nsquared_error = 1.646\nsamples = 12663\nvalue = 0.342", fillcolor="#f2be99"] ;
1 -> 2 ;
3 [label="expr_length <= 842.5\nsquared_error = 1.48\nsamples = 10020\nvalue = 0.436", fillcolor="#f1bd97"] ;
2 -> 3 ;
4 [label="(...)", fillcolor="#C0C0C0"] ;
3 -> 4 ;
31 [label="(...)", fillcolor="#C0C0C0"] ;
3 -> 31 ;
40 [label="nvar <= 550.0\nsquared_error = 2.115\nsamples = 2643\nvalue = -0.015", fillcolor="#f2c29f"] ;
2 -> 40 ;
41 [label="(...)", fillcolor="#C0C0C0"] ;
40 -> 41 ;
52 [label="(...)", fillcolor="#C0C0C0"] ;
40 -> 52 ;
53 [label="squared_error = 0.208\nsamples = 952\nvalue = -0.343", fillcolor="#f3c6a5"] ;
1 -> 53 ;
54 [label="nvar <= 999.5\nsquared_error = 3.165\nsamples = 2511\nvalue = 2.651", fillcolor="#eca470"] ;
0 -> 54 [labeldistance=2.5, labelangle=-45, headlabel="False"] ;
55 [label="init_eval_grad_time <= 0.019\nsquared_error = 1.719\nsamples = 1010\nvalue = 1.717", fillcolor="#eeae80"] ;
54 -> 55 ;
56 [label="squared_error = 0.903\nsamples = 807\nvalue = 1.221", fillcolor="#f0b489"] ;
55 -> 56 ;
57 [label="squared_error = 0.109\nsamples = 203\nvalue = 3.686", fillcolor="#ea985d"] ;
55 -> 57 ;
58 [label="init_eval_obj_time <= 0.0\nsquared_error = 3.156\nsamples = 1501\nvalue = 3.279", fillcolor="#eb9d64"] ;
54 -> 58 ;
59 [label="squared_error = 0.129\nsamples = 291\nvalue = 0.922", fillcolor="#f0b78e"] ;
58 -> 59 ;
60 [label="expr_depth <= 7.5\nsquared_error = 2.227\nsamples = 1210\nvalue = 3.846", fillcolor="#e9965a"] ;
58 -> 60 ;
61 [label="(...)", fillcolor="#C0C0C0"] ;
60 -> 61 ;
64 [label="(...)", fillcolor="#C0C0C0"] ;
60 -> 64 ;
}