digraph Tree {
node [shape=box, style="filled, rounded", color="black", fontname="helvetica"] ;
edge [fontname="helvetica"] ;
0 [label="init_eval_grad_time <= 0.004\nsquared_error = 0.142\nsamples = 15726\nvalue = 0.716", fillcolor="#f5d0b5"] ;
1 [label="nvar <= 99.5\nsquared_error = 0.056\nsamples = 10980\nvalue = 0.576", fillcolor="#f7d9c3"] ;
0 -> 1 [labeldistance=2.5, labelangle=45, headlabel="True"] ;
2 [label="nvar <= 5.5\nsquared_error = 0.084\nsamples = 3389\nvalue = 0.415", fillcolor="#f9e4d4"] ;
1 -> 2 ;
3 [label="expr_length <= 962.5\nsquared_error = 0.461\nsamples = 200\nvalue = 0.953", fillcolor="#f2c09c"] ;
2 -> 3 ;
4 [label="(...)", fillcolor="#C0C0C0"] ;
3 -> 4 ;
19 [label="(...)", fillcolor="#C0C0C0"] ;
3 -> 19 ;
36 [label="expr_depth <= 5.0\nsquared_error = 0.041\nsamples = 3189\nvalue = 0.382", fillcolor="#fae6d8"] ;
2 -> 36 ;
37 [label="(...)", fillcolor="#C0C0C0"] ;
36 -> 37 ;
64 [label="(...)", fillcolor="#C0C0C0"] ;
36 -> 64 ;
121 [label="init_eval_obj_time <= 0.0\nsquared_error = 0.027\nsamples = 7591\nvalue = 0.648", fillcolor="#f6d4bc"] ;
1 -> 121 ;
122 [label="init_eval_grad_time <= 0.001\nsquared_error = 0.013\nsamples = 6220\nvalue = 0.625", fillcolor="#f7d6be"] ;
121 -> 122 ;
123 [label="(...)", fillcolor="#C0C0C0"] ;
122 -> 123 ;
184 [label="(...)", fillcolor="#C0C0C0"] ;
122 -> 184 ;
237 [label="init_eval_grad_time <= 0.0\nsquared_error = 0.076\nsamples = 1371\nvalue = 0.751", fillcolor="#f5cdb1"] ;
121 -> 237 ;
238 [label="(...)", fillcolor="#C0C0C0"] ;
237 -> 238 ;
265 [label="(...)", fillcolor="#C0C0C0"] ;
237 -> 265 ;
316 [label="init_eval_obj_time <= 0.0\nsquared_error = 0.19\nsamples = 4746\nvalue = 1.041", fillcolor="#f1ba93"] ;
0 -> 316 [labeldistance=2.5, labelangle=-45, headlabel="False"] ;
317 [label="expr_length <= 446.0\nsquared_error = 0.082\nsamples = 1889\nvalue = 0.813", fillcolor="#f4c9ab"] ;
316 -> 317 ;
318 [label="init_eval_grad_time <= 0.005\nsquared_error = 0.0\nsamples = 49\nvalue = 1.904", fillcolor="#e58139"] ;
317 -> 318 ;
319 [label="(...)", fillcolor="#C0C0C0"] ;
318 -> 319 ;
322 [label="(...)", fillcolor="#C0C0C0"] ;
318 -> 322 ;
325 [label="init_eval_grad_time <= 0.004\nsquared_error = 0.052\nsamples = 1840\nvalue = 0.784", fillcolor="#f4cbae"] ;
317 -> 325 ;
326 [label="(...)", fillcolor="#C0C0C0"] ;
325 -> 326 ;
353 [label="(...)", fillcolor="#C0C0C0"] ;
325 -> 353 ;
404 [label="expr_depth <= 8.5\nsquared_error = 0.204\nsamples = 2857\nvalue = 1.192", fillcolor="#efb083"] ;
316 -> 404 ;
405 [label="expr_length <= 1083.0\nsquared_error = 0.18\nsamples = 2202\nvalue = 1.292", fillcolor="#edaa79"] ;
404 -> 405 ;
406 [label="(...)", fillcolor="#C0C0C0"] ;
405 -> 406 ;
455 [label="(...)", fillcolor="#C0C0C0"] ;
405 -> 455 ;
486 [label="init_eval_grad_time <= 0.007\nsquared_error = 0.134\nsamples = 655\nvalue = 0.855", fillcolor="#f3c7a6"] ;
404 -> 486 ;
487 [label="(...)", fillcolor="#C0C0C0"] ;
486 -> 487 ;
522 [label="(...)", fillcolor="#C0C0C0"] ;
486 -> 522 ;
}